{
  "phase": "classification",
  "context_size": 4,
  "hidden_size": 32,
  "vocab_size": 28,
  "pitch_vocab": [
    52,
    53,
    54,
    55,
    57,
    58,
    59,
    60,
    61,
    62,
    63,
    64,
    65,
    66,
    67,
    68,
    69,
    70,
    71,
    72,
    73,
    74,
    75,
    76,
    77,
    78,
    79,
    81
  ],
  "description": "Classification MLP pitch scorer (cross-entropy, folk melody dataset)",
  "train_ce_loss": 2.3755,
  "val_ce_loss": 2.5664,
  "train_acc": 19.14,
  "val_acc": 17.55,
  "dataset": "pitch_<100.txt",
  "num_examples": 4330,
  "pitch_samples": [
    64,
    72,
    62,
    69,
    65,
    67,
    65,
    62,
    69,
    71,
    67,
    69,
    77,
    69,
    71,
    69,
    60,
    65,
    74,
    60,
    65,
    70,
    67,
    69,
    65,
    69,
    74,
    62,
    69,
    67,
    72,
    76,
    72,
    69,
    65,
    62,
    64,
    71,
    64,
    76,
    64,
    72,
    74,
    74,
    65,
    71,
    76,
    67,
    67,
    74,
    72,
    74,
    67,
    60,
    70,
    69,
    65,
    69,
    60,
    69,
    61,
    70,
    69,
    67,
    69,
    67,
    67,
    76,
    70,
    58,
    76,
    67,
    65,
    74,
    60,
    71,
    59,
    72,
    57,
    69,
    76,
    67,
    65,
    69,
    67,
    69,
    70,
    69,
    64,
    69,
    79,
    70,
    74,
    76,
    67,
    69,
    60,
    72,
    67,
    69,
    67,
    76,
    76,
    62,
    69,
    71,
    67,
    71,
    64,
    65,
    69,
    67,
    70,
    67,
    70,
    74,
    69,
    72,
    71,
    70,
    65,
    71,
    62,
    72,
    65,
    67,
    72,
    72,
    55,
    65,
    60,
    67,
    69,
    70,
    62,
    72,
    64,
    67,
    55,
    67,
    69,
    62,
    67,
    69,
    72,
    65,
    64,
    59,
    67,
    72,
    65,
    64,
    74,
    69,
    60,
    70,
    65,
    72,
    67,
    69,
    74,
    70,
    74,
    66,
    65,
    58,
    77,
    74,
    69,
    74,
    69,
    72,
    72,
    60,
    60,
    60,
    67,
    60,
    62,
    65,
    72,
    69,
    72,
    72,
    69,
    71,
    64,
    65,
    60,
    72,
    65,
    69,
    69,
    69,
    59,
    67,
    71,
    70,
    60,
    65,
    69,
    72,
    60,
    69,
    64,
    71,
    64,
    70,
    67,
    60,
    67,
    70,
    67,
    65,
    57,
    57,
    55,
    77,
    60,
    65,
    74,
    77,
    74,
    71,
    67,
    69,
    62,
    57,
    69,
    69,
    74,
    76,
    62,
    69,
    72,
    55,
    67,
    69,
    71,
    66,
    60,
    67,
    69,
    65,
    67,
    67,
    72,
    69,
    67,
    74,
    67,
    71,
    69,
    70,
    69,
    69,
    67,
    74,
    74,
    74,
    72,
    69,
    64,
    64,
    67,
    74,
    69,
    71,
    65,
    79,
    60,
    64,
    71,
    67,
    62,
    65,
    72,
    69,
    69,
    67,
    70,
    69,
    67,
    71,
    69,
    70,
    70,
    62,
    70,
    67,
    74,
    72,
    69,
    60,
    69,
    74,
    72,
    69,
    55,
    72,
    71,
    72,
    64,
    74,
    64,
    70,
    69,
    65,
    69,
    67,
    60,
    72,
    67,
    60,
    72,
    72,
    74,
    69,
    72,
    70,
    70,
    69,
    65,
    72,
    69,
    62,
    60,
    60,
    72,
    72,
    65,
    65,
    70,
    69,
    72,
    67,
    74,
    76,
    69,
    69,
    72,
    71,
    67,
    70,
    69,
    72,
    72,
    74,
    67,
    69,
    62,
    67,
    72,
    70,
    71,
    72,
    70,
    69,
    72,
    67,
    72,
    72,
    69,
    69,
    72,
    72,
    65,
    74,
    74,
    74,
    69,
    67,
    69,
    65,
    72,
    74,
    69,
    65,
    77,
    72,
    67,
    67,
    79,
    74,
    74,
    67,
    77,
    72,
    67,
    70,
    69,
    65,
    67,
    71,
    72,
    72,
    70,
    65,
    67,
    70,
    69,
    72,
    74,
    69,
    67,
    69,
    72,
    72,
    74,
    59,
    69,
    67,
    62,
    60,
    62,
    57,
    69,
    67,
    69,
    67,
    76,
    72,
    69,
    65,
    72,
    72,
    72,
    65,
    67,
    72,
    64,
    69,
    60,
    76,
    71,
    69,
    69,
    74,
    75,
    67,
    72,
    65,
    74,
    67,
    65,
    76,
    74,
    72,
    65,
    65,
    65,
    69,
    64,
    67,
    67,
    70,
    57,
    69,
    65,
    64,
    69,
    65,
    67,
    67,
    72,
    65,
    76,
    62,
    72,
    70,
    60,
    76,
    71,
    71,
    74,
    65,
    69,
    67,
    70,
    69,
    65,
    65,
    60,
    59,
    71,
    65,
    65,
    75,
    69,
    69,
    70,
    65,
    67,
    72,
    64,
    69,
    67,
    74,
    71,
    67,
    74,
    65,
    74,
    60,
    79,
    69,
    79,
    57,
    64,
    69,
    74,
    62
  ],
  "W1": [
    [
      0.07376805981265969,
      0.14101647148506286,
      0.19466327036805087,
      0.23165152631826683
    ],
    [
      0.3401464821780684,
      0.7232682412792989,
      0.7230149440440641,
      1.179742040222669
    ],
    [
      -0.3397054746310302,
      -0.058287429493616094,
      0.2995328775521251,
      -0.2598671616603216
    ],
    [
      -0.19583154964199054,
      -0.14096595714836435,
      -0.036987846237760524,
      -0.132680246900314
    ],
    [
      0.5234233845415117,
      -0.007286421240809556,
      0.4148570314540375,
      -0.2051056458050513
    ],
    [
      0.28792410128043167,
      -0.036997045853313745,
      0.24429918051324734,
      -0.2910507051864534
    ],
    [
      0.615542666908786,
      0.034307706541722556,
      0.04503120588681538,
      0.9772303233139872
    ],
    [
      -0.375377658807309,
      -0.38291240247157043,
      -0.20634231844545656,
      0.27697919314343156
    ],
    [
      0.09907014874721864,
      -0.2134771610139683,
      -0.021587303340842967,
      -0.31484969882139785
    ],
    [
      0.3279916956589231,
      -0.11293337947133131,
      -0.4514443538349258,
      -0.5807619256672062
    ],
    [
      0.5371718863159363,
      0.825581954386349,
      0.7178306357200339,
      0.7872398902386003
    ],
    [
      -0.28148060866405417,
      -0.1603810344801538,
      0.0554878115536707,
      0.34426629302823564
    ],
    [
      0.5152919141339118,
      0.8268649525950958,
      0.3835598953598494,
      0.8298871573037064
    ],
    [
      -0.24631270557231943,
      0.07519758882126043,
      0.2699106087333224,
      -0.2099626015748784
    ],
    [
      0.42108037886294913,
      0.22075385315393015,
      0.8772812885978871,
      1.411420682868897
    ],
    [
      0.24036702508633853,
      0.0523953413764957,
      -0.375951426270765,
      0.02538979720094883
    ],
    [
      0.13188162241808854,
      -0.3519453508636425,
      0.1204685624763322,
      -0.3979178531120598
    ],
    [
      -0.06527176477770502,
      -0.008000274374252825,
      -0.054277915529149345,
      -0.1125229953797171
    ],
    [
      0.3197196607650904,
      -0.032872685029093796,
      -0.2833315403165224,
      -0.26443306396209565
    ],
    [
      -0.044267155040757906,
      0.04355347860400521,
      -0.01669771814506367,
      0.1709700011553752
    ],
    [
      0.21097946890172778,
      -0.0003043984816111494,
      0.4014866197879656,
      0.3815253397927618
    ],
    [
      -0.14508770044244346,
      -0.20780232426459047,
      0.3548672778847163,
      -0.18050432867405436
    ],
    [
      0.049886635080967676,
      0.2088670348304308,
      -0.15132859447656574,
      -0.35526605878028306
    ],
    [
      -0.13358160048691126,
      -0.004648720331124068,
      -0.14287533362962096,
      -0.010165437634786334
    ],
    [
      -0.1185349187532852,
      -0.19730443195631042,
      -0.1799080911537567,
      0.07851023521998945
    ],
    [
      0.3839001460153133,
      0.19297211855949922,
      0.2612961150001314,
      0.14524714552099924
    ],
    [
      -0.21118190054834984,
      -0.07640111627751645,
      0.04505118810513414,
      -0.2120246183033478
    ],
    [
      -0.019519893305347424,
      0.1729686005804797,
      -0.04231530306760439,
      -0.39416922816186667
    ],
    [
      -0.16800594432839505,
      -0.07805615157502133,
      -0.20959045603643073,
      0.13387279704263633
    ],
    [
      -0.029023650565880403,
      0.1896040301146966,
      0.18583994987138946,
      1.0340646697520932
    ],
    [
      0.04114201572399795,
      -0.12099619753251523,
      -0.037766834732090415,
      -0.15789166639371127
    ],
    [
      -0.2231936043356899,
      0.17620750335211025,
      -0.15568798413853516,
      0.19275084035545054
    ]
  ],
  "b1": [
    -0.11661816134255637,
    -0.38733160973721514,
    0.0,
    0.0,
    0.7483571483744998,
    0.00286944945209112,
    -0.15094101954466468,
    0.0,
    0.0,
    0.7378196042205601,
    0.39636958727914257,
    -0.013492239068970837,
    0.6542452203930267,
    0.0,
    -0.9859613248327843,
    -0.0028103432445955104,
    0.0,
    0.0,
    0.0,
    0.24433417470596758,
    -0.4485606752886319,
    0.0,
    1.0683431286284522,
    0.0,
    0.0,
    -0.4487734723927918,
    0.0,
    0.0,
    0.0,
    -0.6558462728499204,
    0.0,
    -0.01182157029889085
  ],
  "W2": [
    [
      0.19488984505869397,
      -0.15637844307040538,
      -0.19508661802520594,
      0.1509068330807143,
      -0.3343876618949256,
      0.04358721796212924,
      0.01749501054345998,
      0.06121583928664126,
      0.30390160643700576,
      0.20635588587200213,
      -0.48950808276023705,
      -0.08801295636641725,
      -0.4818134439710981,
      0.13156244205320994,
      -0.4095909455165219,
      -0.2874413890742729,
      -0.28174248287690995,
      -0.13146432905967817,
      0.2808669335962703,
      0.01474419547630363,
      0.09636286871083685,
      -0.25134564128760195,
      -0.41556537081608574,
      -0.13639578559421472,
      -0.013462316520598372,
      -0.13776728252687587,
      0.2944065595514524,
      -0.1565464112305988,
      0.22877369004229237,
      -0.273818629674641,
      -0.2749009489969478,
      -0.005264634364612453
    ],
    [
      -0.06934297829935451,
      -0.25869385791233357,
      -0.22026718111179355,
      0.19678352738859778,
      0.020363740211506633,
      -0.2795956388596465,
      -0.35924447624589373,
      0.03672861200590227,
      -0.05301620388717426,
      0.05436262350256975,
      -0.4169119657040291,
      0.17433201423584788,
      -0.5636300080536697,
      0.25836085348814847,
      -0.3615675592525589,
      0.055987864658114256,
      -0.04501196384873091,
      0.04340508835683893,
      -0.27813477682035237,
      0.19389145133327737,
      -0.33674864036344776,
      0.16616953511964466,
      -0.06805912753879989,
      -0.14885086004589546,
      -0.2648803043504507,
      -0.21401973910741515,
      0.03288278333850714,
      -0.21722784743612522,
      -0.057858567255034965,
      0.0808467076740509,
      -0.019029019096768462,
      -0.29563753639686463
    ],
    [
      -0.19849409133555934,
      -0.3406466667499382,
      0.22743526659286123,
      -0.2712097329389398,
      -0.31051240521239015,
      -0.15876055155121763,
      0.07454201433494198,
      0.05678792241189651,
      0.19220682871045042,
      -0.19545191867954892,
      -0.5097340250993964,
      -0.17406466338410717,
      -0.48616764855115024,
      -0.14822703983993654,
      -0.35325866789098964,
      -0.27850955828232465,
      0.18507455554477165,
      0.060111127189472646,
      0.20506757227810585,
      0.21407578321768478,
      -0.083303923633012,
      -0.019797141862723966,
      -0.2036553227445669,
      -0.06165902638163867,
      -0.14404415508764012,
      -0.002576549120509923,
      -0.039364751054205616,
      0.062003829250011855,
      0.24629266063355,
      0.12560668227061825,
      0.06559426596359552,
      -0.29990119381152974
    ],
    [
      -0.23573568624114435,
      0.007896530743512995,
      0.22801089060476426,
      0.055101380126844623,
      -0.2999623949582339,
      0.16866250410640934,
      0.16315822457310222,
      0.048222827212893726,
      0.16640474521626664,
      -0.1541341435189859,
      -0.05536964120178627,
      -0.03656844140817558,
      -0.18361023212189867,
      0.3142959147402022,
      -0.15143090391606343,
      0.19874566864376478,
      0.29665657887911606,
      -0.0189670916108306,
      -0.057965755331620405,
      -0.13432998198583182,
      -0.3162275146452187,
      -0.2145131982642566,
      -0.014438067596016024,
      -0.002865642756633202,
      0.10282685738783093,
      -0.09638826361926817,
      0.16475452193137674,
      -0.2930184629401722,
      -0.26053386292605135,
      -0.20524387011142922,
      -0.24291250790962576,
      0.1723195633101071
    ],
    [
      0.16553247176293118,
      0.1457067003675239,
      -0.3154997670415355,
      0.23360850881195866,
      0.026597159519216193,
      -0.2833240717008974,
      -0.0008798773972521485,
      0.07756047114166537,
      -0.0009530457345932053,
      0.029735156001014652,
      -0.2773453587540916,
      -0.14737036835567208,
      -0.1925708990463372,
      -0.13406213988203963,
      0.13778983371913087,
      -0.009669428481079911,
      -0.29796912743788023,
      0.08223330837883308,
      0.1893026264230911,
      0.12474114026260495,
      -0.19424513242970698,
      -0.3075792753176799,
      0.025248247170136018,
      -0.17411459089241182,
      0.21592391200642197,
      -0.2831891389165164,
      0.28274603966025663,
      0.0934198098062608,
      -0.21884787659869642,
      0.21532936353316356,
      -0.1316383076412913,
      0.12983605325368403
    ],
    [
      -0.13494418615496634,
      -0.21154891357191122,
      -0.01756975261629179,
      -0.02733063437913641,
      -0.3408090983028856,
      -0.20424402461442062,
      -0.03292826487679271,
      0.15576908289532265,
      -0.2298923083115863,
      -0.25641682603441046,
      -0.06302276229305656,
      0.22411986119448185,
      -0.32371189513744614,
      0.18196846493800567,
      -0.28497226351034155,
      -0.31460566611234536,
      0.14296719447557693,
      0.21343851418059984,
      0.05054798627591006,
      0.048303631970416976,
      0.16519517941942236,
      -0.033806396971453434,
      -0.05669328673135598,
      -0.1059742769585443,
      0.16625527918126093,
      -0.11204177454800368,
      0.27375980368037206,
      0.23375662921034496,
      0.3040685752477504,
      -0.19491998121193718,
      -0.07401573400367786,
      0.22511141182085442
    ],
    [
      -0.13669690093507675,
      -0.20898031091377345,
      -0.017091320031743684,
      0.26147619674713335,
      -0.012993002068032397,
      0.3137426796766195,
      0.1569264593440109,
      0.09614525841004828,
      -0.2200279147981286,
      0.3881557825576615,
      -0.2505241636724017,
      0.29426542584681326,
      -0.07888761978196522,
      -0.25275161815731806,
      0.06777276597183593,
      -0.25314230820620715,
      0.2595861096363135,
      -0.3065210928119028,
      -0.22505587571592633,
      0.2220904439755913,
      0.20555339005748477,
      -0.2689022264627151,
      0.2780280841773629,
      -0.14861264297966767,
      0.07795608973529222,
      -0.10981505695197716,
      -0.26543189720930727,
      -0.10842464162834806,
      0.11027336236168817,
      -0.06914899810410252,
      0.2872230976697315,
      0.08010398587902845
    ],
    [
      0.11267255168561338,
      -0.14757896181108413,
      0.025940804132598638,
      0.07428788628033939,
      0.10291934479720959,
      0.132162989604762,
      -0.1743687580277983,
      -0.17235280932615887,
      -0.2590668582905023,
      0.5552557818512295,
      0.2659693316186252,
      0.12883641392134973,
      -0.05313458325898471,
      -0.21100943631433683,
      -0.471310305764679,
      -0.2979205493790585,
      -0.11107521355942312,
      -0.2807348497483666,
      -0.08951564214769189,
      -0.01632451854442093,
      -0.3400964741003256,
      -0.05562335789308376,
      0.4310590394694964,
      -0.20234979228968347,
      -0.20550418391773612,
      -0.05723145548249064,
      -0.07428550810865359,
      0.11582447820408198,
      -0.0014753591447277947,
      -0.2201232758364232,
      -0.1693788999480759,
      0.08698994373436826
    ],
    [
      -0.12658551531155204,
      -0.14543248935902842,
      0.25229190764929904,
      -0.021975770763183633,
      -0.2886216788276168,
      0.023310614094194774,
      -0.3912575587280838,
      0.28159174037294304,
      0.3084180123465223,
      -0.11245657402376055,
      -0.008829648961722643,
      0.12032488366664977,
      -0.3165716149080372,
      -0.12514924413762585,
      0.15093451884733783,
      0.22346854953740253,
      -0.24877431702609876,
      -0.07503180624313305,
      -0.08920206103296083,
      -0.20059748305545427,
      0.04713329647622288,
      -0.30235194597996184,
      0.13943683299777215,
      -0.06589823556675584,
      -0.31110616277276415,
      0.1960823546018894,
      0.1760197210230166,
      0.29953272148955273,
      0.2596969639262144,
      0.12184880897068284,
      0.21050580337430963,
      0.25477035068052645
    ],
    [
      0.08796220122413656,
      -0.17068128770064667,
      0.1909585368472741,
      -0.17771713383127313,
      0.21661838868769576,
      -0.1067208245685218,
      0.17429021114260201,
      0.16916337098698808,
      0.11438280481189173,
      0.08445916824749274,
      0.059108005439455866,
      0.08043787303294365,
      0.12108356345427608,
      0.18253329721513856,
      -0.6175955306847738,
      -0.0854700861832573,
      -0.2331156420716634,
      0.2590713759762105,
      -0.10959244753780606,
      0.01072373358001458,
      -0.3405478220280448,
      0.1812066123347622,
      0.6494719870972159,
      -0.08483914684312294,
      0.0011351073230834174,
      -0.2355213959643787,
      -0.21216073708934957,
      0.2618675511980599,
      0.28092904155263027,
      -0.04276859964382326,
      -0.1295639237552595,
      0.2339099784346977
    ],
    [
      0.12845427495968792,
      -0.18739328123967025,
      -0.2686042686527589,
      0.16073951776126,
      -0.2851762982281871,
      0.1042603596426585,
      0.026723878800743693,
      -0.06488266738173665,
      0.21866801013200615,
      0.03843250667626418,
      -0.4696837264028257,
      -0.06670198162851672,
      -0.3537290516499601,
      -0.23806338575371347,
      -0.18856921934970122,
      0.15748851259032154,
      -0.15042233308355318,
      -0.0752460811560676,
      0.08762625087985454,
      -0.128194271674072,
      0.06403578534897943,
      -0.018039612636066016,
      0.01895838321382103,
      0.2802847717263714,
      -0.10877837853964165,
      0.04588432455518067,
      0.09338356495335681,
      0.08563695976698599,
      -0.022599194325913174,
      0.10894381104068745,
      0.09438731340033224,
      -0.24247819876091004
    ],
    [
      -0.3554804132303931,
      -0.3154731714118061,
      0.31365201165075635,
      -0.2427867255998326,
      0.13198529165293618,
      0.07002937301112663,
      -0.10411188921700806,
      -0.08157948059896117,
      0.2842133529716538,
      0.3565150850311301,
      0.23882931274411767,
      0.05505732796666489,
      0.4211021595607057,
      0.24375707974932065,
      -0.17590110127675432,
      0.21104505158912562,
      0.07314488256859664,
      0.2776815402669463,
      -0.13930456688770548,
      0.15973871251780006,
      -0.3008521469884143,
      -0.03497740942708477,
      0.1446464598574877,
      -0.08684497441326267,
      0.30416539596238973,
      -0.15472665392143384,
      0.25405499174494744,
      0.09159651701572358,
      -0.27793252715828387,
      -0.41422677272502023,
      0.29612002882217275,
      0.2836095101914152
    ],
    [
      0.1386209341346178,
      -0.3118780581231414,
      -0.18208026967584973,
      0.088223068003634,
      0.6052738108618502,
      -0.17552912175700294,
      -0.1942796804096283,
      0.3091574848714543,
      0.18150088690253424,
      0.08613753112231957,
      0.39495403947466895,
      0.03393378585582195,
      0.2807968647363647,
      0.1979920897296476,
      -0.4943607162966698,
      0.17352396716205265,
      0.1825543391798431,
      0.060704116139700004,
      -0.14086375578573182,
      0.3148006839816682,
      0.19280772822905604,
      0.02543448816636179,
      0.4889349802849023,
      -0.24670423917790602,
      0.23176199428818595,
      -0.24874625931639383,
      -0.089655454717989,
      0.18242011957821497,
      0.0561955220881592,
      -0.6451011193197357,
      -0.148394617354716,
      -0.23677175991047394
    ],
    [
      -0.08685325206796532,
      -0.2802681813462983,
      -0.2760301331854742,
      -0.03271362687826829,
      -0.09721441435655227,
      0.0594363420620449,
      -0.03347905451223603,
      -0.1761073969493802,
      0.0727999553829865,
      0.1599281918055916,
      0.22966212990496604,
      0.10046227025302988,
      -0.14211626904483618,
      0.09065660869125347,
      -0.32817014133858313,
      0.3153336464012663,
      0.2196508848933591,
      -0.04662865734319016,
      -0.2479467095877332,
      0.11671835338425712,
      -0.06729890625078125,
      0.2525184743595699,
      -0.1075667203655783,
      -0.22241321739022155,
      -0.23641719789718912,
      0.07479326949097742,
      0.05398936951259092,
      0.1341772097362321,
      -0.07532267180810293,
      0.0530895865021517,
      -0.1297180552065686,
      0.003445499974840231
    ],
    [
      -0.05818782494476781,
      0.13125268143270333,
      -0.24386595296593241,
      0.0978490658628024,
      0.483637082909949,
      0.1066438632024254,
      0.183731275835159,
      -0.04422765224853159,
      0.24545031378922538,
      0.16633287098266136,
      0.34828114975304264,
      -0.06454526185498514,
      0.32086960899890027,
      -0.11855483303315364,
      -0.36170431631613925,
      -0.15502230464226563,
      0.2868770970572981,
      0.11815599738134897,
      -0.016274418110095445,
      -0.22352832391166813,
      -0.3325203274279774,
      -0.043085072703345384,
      0.3936401168914605,
      -0.08054519830957244,
      -0.2339355276009898,
      -0.2999232896040558,
      0.2887947694147724,
      0.03901199590831861,
      0.10752582979904635,
      -0.3114927538962609,
      0.2362900493781595,
      0.2785297888573512
    ],
    [
      -0.10133704536014657,
      0.1418738094013733,
      -0.2836904081368618,
      -0.13431495597471654,
      -0.20836461106240828,
      -0.2550464875893704,
      -0.05717684305431799,
      -0.21836781032273697,
      -0.011264414899394393,
      0.2158533598223543,
      -0.2497486745080043,
      0.035557427881548066,
      -0.3952489343989881,
      -0.14004575897564314,
      -0.2451093794022838,
      -0.04483352933292921,
      0.03855809533485849,
      0.16913918421539892,
      0.0769848941491077,
      0.07033062884838497,
      -0.0024675157466067937,
      0.06893443730507948,
      0.05352875950803675,
      0.12236192304843796,
      -0.2979161664846661,
      -0.15634870177322946,
      0.16596235130537246,
      0.26660373713719204,
      -0.09422106169834926,
      -0.20711833810033428,
      -0.22562756847795296,
      0.09946701383519978
    ],
    [
      -0.10625932159880257,
      0.37074833564929943,
      0.29839904616908114,
      -0.25819511176246135,
      0.1450281902580823,
      -0.06918019565143811,
      0.04958508549091237,
      -0.21667339871519675,
      -0.11913098755898241,
      -0.15918463993767876,
      0.5323025654200602,
      0.06022101337813007,
      0.4546277678813418,
      -0.21783039543540436,
      0.3393166343083155,
      -0.28475900569885587,
      -0.2646310776175218,
      -0.035978514085727,
      -0.048057277097520223,
      0.15732370185534753,
      0.06020227255211053,
      -0.17988998135420423,
      0.052346785468617055,
      -0.09792128406010633,
      -0.2460949161424053,
      0.13704076801125453,
      0.058903271882396746,
      0.017034625066231934,
      -0.12116621545404879,
      -0.1280754408615798,
      0.30639033657488796,
      -0.28190008038253606
    ],
    [
      0.004957802022550492,
      0.6876076416601935,
      0.16908668753291495,
      0.16707001987117232,
      -0.085576110057168,
      -0.2844800320628034,
      0.20225002479806248,
      -0.04385762168822627,
      -0.23452355427956986,
      -0.12670700748307942,
      0.19041898484728764,
      0.03682183456911506,
      0.4308824582142645,
      -0.09223277922572451,
      0.31226106272416854,
      0.15307857758924742,
      -0.04033826965358367,
      -0.025453647003016167,
      -0.26698312639742405,
      -0.016321006899001046,
      0.1220497757386047,
      -0.06044827543048609,
      0.05136684233203872,
      -0.1331222726362582,
      -0.06006284276124496,
      0.3595960277883796,
      -0.20752562215201525,
      0.2830961461511345,
      -0.02523693514254316,
      0.325861635145745,
      -0.08737202966454147,
      -0.03972319302943294
    ],
    [
      -0.13870625272179657,
      0.2308854228240787,
      -0.0629610643858593,
      -0.26648698045996677,
      0.2645319582800275,
      0.14605924654316868,
      -0.04669019533298766,
      0.17652964008758337,
      -0.2679212062007374,
      -0.025919016426196193,
      0.24956661289692003,
      -0.1937418929566296,
      0.367058204866578,
      -0.09417279634749795,
      0.5605833774638838,
      0.09198523542180745,
      -0.22282051221511145,
      -0.2512084737056821,
      -0.1543392479870198,
      -0.16241884094166084,
      -0.1042793993893384,
      0.16390235639951467,
      -0.31702791811877884,
      0.28542221087287595,
      0.08092190874317762,
      0.04619101771790173,
      0.04030985899224038,
      0.05026003295501785,
      0.11455887039671847,
      0.3809378049205746,
      0.09043597434385459,
      0.3077472843025552
    ],
    [
      0.21260574827614956,
      0.8974754117579306,
      -0.11628397330525991,
      -0.038097340038716676,
      -0.02133942057318259,
      -0.014494316002019624,
      0.5437832748624298,
      0.05781893094495266,
      -0.093639960364543,
      -0.5916468779027885,
      0.4239008833129665,
      -0.2926821541525003,
      0.28733626081281627,
      -0.13466430862832168,
      0.8107819383020225,
      0.30191183652064035,
      -0.2591192425303236,
      0.059501301744783686,
      -0.07305969673224977,
      0.20699846913471348,
      0.601752648972593,
      0.15110693693388005,
      -0.46525512930370166,
      0.258705907913149,
      0.04531966775490859,
      -0.10096553966383288,
      0.06641152065342237,
      0.0008647576334298579,
      0.2894890380006751,
      0.4035644869698335,
      0.19667268009986377,
      0.21382355023535596
    ],
    [
      0.22276261936171007,
      -0.4863332385943107,
      0.09241888717383434,
      -0.2914721117656615,
      -0.03749055883946187,
      0.3004619353748195,
      -0.09716371485722096,
      0.06944703667598101,
      -0.08607848831784132,
      0.25527257984785046,
      -0.36670372031897613,
      0.17355250602293046,
      -0.1790533013741352,
      -0.2831089047633843,
      -0.04534910775084202,
      -0.10457728683389723,
      -0.1077130240822704,
      0.03665915434846162,
      -0.07174309625311151,
      -0.22412744985686905,
      0.16636477313599923,
      0.2937186917540832,
      -0.030006190524041985,
      -0.2211233233363759,
      -0.2646813831836845,
      0.07924292809915733,
      0.2635736009562993,
      -0.1200199873897749,
      0.09869766972185856,
      0.09205327739193014,
      -0.23467157637807357,
      0.1321013514888378
    ],
    [
      0.13557225004266515,
      0.8079221950636538,
      0.09075310822243171,
      -0.10848095213579886,
      -0.2645072168793677,
      0.08258051215192944,
      0.6719021518686056,
      0.31443419357387997,
      0.2608550100792623,
      -0.6807357002361863,
      0.6410229257808048,
      0.007018263908634934,
      0.0801377019803829,
      -0.12088371134743553,
      1.2103756175780875,
      -0.10009908492960083,
      0.16833196592461636,
      -0.19479299380637827,
      0.3162129799041155,
      -0.08324762579638466,
      0.30404833532911296,
      0.1822231977289805,
      -0.296190301006142,
      0.025153236171901128,
      0.1509317198849393,
      0.2348368816075822,
      0.10241304197354734,
      0.23805169121215014,
      0.07464965330541101,
      0.5853520159633538,
      -0.21866975378782438,
      -0.2014693200386021
    ],
    [
      0.0697800607005803,
      -0.03486909728704706,
      0.2546620037742026,
      0.13988841055383472,
      -0.3948086386800158,
      -0.09350319493424193,
      0.0926372740636048,
      0.29699391000575276,
      0.06994668654107178,
      0.1415459374861612,
      0.01819575773619045,
      -0.16826703067880666,
      -0.3246451157289132,
      0.29446916888964464,
      0.136227135733787,
      0.2554954444694873,
      -0.19352116206085312,
      0.11277113791177862,
      0.04453713489544869,
      -0.08188763605842037,
      0.13871337821979954,
      0.17590108595025583,
      -0.06433592806340348,
      -0.05144341010581799,
      -0.21373317783621476,
      -0.19597632070888588,
      0.06619497642163236,
      0.23590712780071704,
      -0.2832263607839868,
      0.006776801836558997,
      -0.08145261563698991,
      0.27460829209022986
    ],
    [
      0.2927320754341051,
      0.36025483036889716,
      -0.23737461941679525,
      -0.2631804789754312,
      -0.2906862606829815,
      -0.0334528942873811,
      0.16981821277616307,
      0.20937232856431637,
      -0.25822301152338845,
      0.025390747500282165,
      0.39455454894367975,
      0.2448496815558142,
      0.3760630149368706,
      -0.05382392270795294,
      0.39466352896511236,
      -0.07971456158835553,
      -0.07199486837556432,
      -0.26461595580868785,
      -0.17421698597979332,
      -0.0964641515146678,
      -0.04871642455745617,
      0.13579090490858242,
      -0.3139453300698053,
      -0.2238580739676942,
      -0.2920027009003205,
      0.40944530493330944,
      -0.017421029974137303,
      0.20941265854216357,
      0.16370552024949314,
      0.25327557973542336,
      0.07295264335352925,
      0.2573617917356125
    ],
    [
      -0.18723529918781934,
      0.12692707852504548,
      -0.22166325585534535,
      0.27842333700569327,
      0.08978097581491935,
      -0.049682547609662814,
      0.3361961056001298,
      -0.16593089004404293,
      -0.23916410605212152,
      -0.30171746242773734,
      0.3290854231774835,
      0.07762294924520803,
      -0.08364484603460501,
      0.21294001146465297,
      0.33849441507597716,
      0.022801972148853846,
      0.08345563305539483,
      0.04746417968031158,
      0.13821956910685446,
      -0.09809714024710707,
      -0.17627303126525107,
      -0.09308730996514025,
      -0.045475484656394984,
      -0.19776004627308288,
      0.10638844592203078,
      0.11425688191830609,
      -0.08816192458299327,
      0.28675766438635436,
      0.02787987941937159,
      0.3596033157617935,
      0.004820948473533038,
      -0.30194257891886583
    ],
    [
      0.16178746325054982,
      -0.5243426948039899,
      -0.0715425339763614,
      -0.08013060617353968,
      -0.019152729160696363,
      -0.1012691951356781,
      -0.4007403829155808,
      -0.16372634122240318,
      0.09936154689368176,
      -0.26233267953124245,
      -0.26550824822043984,
      0.16231398413727008,
      -0.5496096725534089,
      -0.09341428537173171,
      -0.24173418559279236,
      0.09031163539712687,
      0.2089529714136557,
      0.11680351079553836,
      0.30409675396008556,
      -0.07792551144003855,
      -0.24929064297754727,
      -0.23093950503022875,
      0.03215038058414612,
      0.28056053160651867,
      -0.29283716330941695,
      -0.21585134099735717,
      0.1841136323326798,
      0.24399526358957563,
      -0.1166274437396847,
      -0.1392293380995021,
      -0.06436875900932987,
      0.19943962269103693
    ],
    [
      -0.024965313543129964,
      -0.31021526484316014,
      0.09290803312504087,
      -0.13527534735015176,
      0.12907502560747128,
      -0.29226971237490174,
      0.08782674744734192,
      -0.14343041203665285,
      0.18932076413701188,
      -0.10222560080596524,
      -0.14907723233766043,
      -0.03815796522051566,
      0.18519964213558196,
      -0.10180217481805104,
      -0.14559719845704588,
      0.12147440785815947,
      -0.08389716988561641,
      0.188023261917384,
      -0.14753878644887633,
      -0.295050668460188,
      -0.03388648983668759,
      -0.04388789059899201,
      0.21958895592468153,
      -0.20209706319393567,
      -0.13043356919298477,
      -0.22554587677585597,
      -0.10883300781960911,
      -0.12924864456638274,
      -0.03420587482344456,
      0.20466133475122306,
      -0.21083235803925987,
      -0.03554448781092585
    ],
    [
      -0.09778114105743656,
      -0.0307116570897991,
      0.2603232701737925,
      0.07263845527887575,
      -0.1790310500963998,
      0.07928040446612873,
      0.10109867906572685,
      -0.27995134093311164,
      0.10826619752583838,
      -0.07057000647296166,
      -0.22444650555362985,
      0.15802171325462783,
      -0.44555716937990597,
      -0.2965327092023846,
      0.12912680275238558,
      0.11263297393827379,
      -0.03910293889666239,
      -0.23639288883813186,
      -0.1669711821355943,
      0.037855100301686935,
      -0.1303279336524916,
      0.2842679613756543,
      -0.37399741678640913,
      -0.21918495075403266,
      -0.031671748446364834,
      -0.09950533306514356,
      -0.03545590669062987,
      -0.267601151220271,
      -0.22914173333671267,
      -0.08295403769661307,
      -0.11739295446639253,
      -0.14001652362508066
    ]
  ],
  "b2": [
    -0.26135980641195355,
    -0.3530973229387741,
    -0.18800506030166497,
    0.029584874697380456,
    0.11070156908428697,
    -0.1664712344399859,
    0.1593583760505545,
    0.7271673994235661,
    -0.24753325706417884,
    0.9855657228772647,
    -0.17038951786424267,
    0.7312841998483078,
    0.7258634402099183,
    -0.047164525822839386,
    0.6731728281228267,
    -0.16321955441599428,
    0.26871626915058416,
    0.01300760596559331,
    -0.10197972715635462,
    -0.21975314391674375,
    -0.2757919535710949,
    -0.5435298717319486,
    -0.22731758840368202,
    -0.4906140586123167,
    -0.2123216212692066,
    -0.2491479304025361,
    -0.2655677176068723,
    -0.24115839349990667
  ]
}